Language model created by QuickLM on Sun Jun  7 23:48:18 EDT 2020
Copyright (c) 1996-2010 Carnegie Mellon University and Alexander I. Rudnicky

The model is in standard ARPA format, designed by Doug Paul while he was at MITRE.

The code that was used to produce this language model is available in Open Source.
Please visit http://www.speech.cs.cmu.edu/tools/ for more information

The (fixed) discount mass is 0.5. The backoffs are computed using the ratio method.
This model based on a corpus of 43 sentences and 50 words

\data\
ngram 1=50
ngram 2=93
ngram 3=56

\1-grams:
-0.8319 </s> -0.3010
-0.8319 <s> -0.2318
-2.4654 ALEX -0.2318
-2.4654 AM -0.2318
-2.1644 ARM -0.2318
-2.4654 AT -0.2318
-2.4654 CHARLIE -0.2318
-2.4654 CHOCOLATE -0.2995
-2.4654 COKE -0.2318
-2.4654 DRINK -0.2318
-2.4654 ELIZABETH -0.2318
-2.4654 FAVOURITE -0.2318
-2.4654 FIND -0.2318
-2.4654 FOLLOW -0.2318
-2.4654 FRANCIS -0.2318
-2.4654 GRAB -0.2318
-2.4654 GRAPE -0.2980
-2.4654 HELLO -0.2318
-2.4654 HI -0.2318
-2.4654 I -0.2318
-2.4654 IS -0.2318
-2.4654 JAMES -0.2318
-2.4654 JENNIFER -0.2318
-2.4654 JOHN -0.2318
-2.1644 JUICE -0.2318
-2.1644 LEFT -0.2283
-2.4654 LIKE -0.2318
-2.4654 LINDA -0.2318
-2.4654 LOCATE -0.2318
-2.4654 MARY -0.2318
-2.4654 MEET -0.2318
-2.4654 MICHAEL -0.2318
-2.4654 MY -0.2318
-2.4654 NAME -0.2318
-2.4654 ORANGE -0.2980
-2.4654 PATRICIA -0.2318
-2.1644 POINT -0.2950
-2.1644 POINTING -0.2965
-2.4654 PREFER -0.2318
-2.1644 RAISING -0.2980
-2.1644 RIGHT -0.2283
-2.4654 ROBERT -0.2318
-2.1644 ROBIN -0.2318
-2.4654 SKYLER -0.2318
-2.4654 SPRITE -0.2318
-2.1644 THE -0.2950
-2.1644 THEIR -0.2950
-1.9883 TO -0.2283
-2.4654 WAVING -0.2318
-2.4654 WILLIAM -0.2318

\2-grams:
-1.9345 <s> ALEX 0.0000
-1.9345 <s> AM 0.0000
-1.9345 <s> CHARLIE 0.0000
-1.9345 <s> CHOCOLATE 0.0000
-1.9345 <s> COKE 0.0000
-1.9345 <s> ELIZABETH 0.0000
-1.9345 <s> FAVOURITE 0.0000
-1.9345 <s> FIND 0.0000
-1.9345 <s> FOLLOW 0.0000
-1.9345 <s> FRANCIS 0.0000
-1.9345 <s> GRAB 0.0000
-1.9345 <s> GRAPE 0.0000
-1.9345 <s> HELLO 0.0000
-1.9345 <s> HI 0.0000
-1.9345 <s> I 0.0000
-1.9345 <s> IS 0.0000
-1.9345 <s> JAMES 0.0000
-1.9345 <s> JENNIFER 0.0000
-1.9345 <s> JOHN 0.0000
-1.9345 <s> LIKE 0.0000
-1.9345 <s> LINDA 0.0000
-1.9345 <s> LOCATE 0.0000
-1.9345 <s> MARY 0.0000
-1.9345 <s> MEET 0.0000
-1.9345 <s> MICHAEL 0.0000
-1.9345 <s> MY 0.0000
-1.9345 <s> NAME 0.0000
-1.9345 <s> ORANGE 0.0000
-1.9345 <s> PATRICIA 0.0000
-1.6335 <s> POINT 0.0000
-1.6335 <s> POINTING 0.0000
-1.9345 <s> PREFER 0.0000
-1.6335 <s> RAISING 0.0000
-1.9345 <s> ROBERT 0.0000
-1.6335 <s> ROBIN 0.0000
-1.9345 <s> SKYLER 0.0000
-1.9345 <s> SPRITE 0.0000
-1.9345 <s> WAVING 0.0000
-1.9345 <s> WILLIAM 0.0000
-0.3010 ALEX </s> -0.3010
-0.3010 AM </s> -0.3010
-0.3010 ARM </s> -0.3010
-0.3010 AT </s> -0.3010
-0.3010 CHARLIE </s> -0.3010
-0.3010 CHOCOLATE DRINK 0.0000
-0.3010 COKE </s> -0.3010
-0.3010 DRINK </s> -0.3010
-0.3010 ELIZABETH </s> -0.3010
-0.3010 FAVOURITE </s> -0.3010
-0.3010 FIND </s> -0.3010
-0.3010 FOLLOW </s> -0.3010
-0.3010 FRANCIS </s> -0.3010
-0.3010 GRAB </s> -0.3010
-0.3010 GRAPE JUICE 0.0000
-0.3010 HELLO </s> -0.3010
-0.3010 HI </s> -0.3010
-0.3010 I </s> -0.3010
-0.3010 IS </s> -0.3010
-0.3010 JAMES </s> -0.3010
-0.3010 JENNIFER </s> -0.3010
-0.3010 JOHN </s> -0.3010
-0.3010 JUICE </s> -0.3010
-0.6021 LEFT </s> -0.3010
-0.6021 LEFT ARM 0.0000
-0.3010 LIKE </s> -0.3010
-0.3010 LINDA </s> -0.3010
-0.3010 LOCATE </s> -0.3010
-0.3010 MARY </s> -0.3010
-0.3010 MEET </s> -0.3010
-0.3010 MICHAEL </s> -0.3010
-0.3010 MY </s> -0.3010
-0.3010 NAME </s> -0.3010
-0.3010 ORANGE JUICE 0.0000
-0.3010 PATRICIA </s> -0.3010
-0.6021 POINT AT 0.0000
-0.6021 POINT TO -0.2218
-0.3010 POINTING TO -0.1249
-0.3010 PREFER </s> -0.3010
-0.3010 RAISING THEIR 0.0000
-0.6021 RIGHT </s> -0.3010
-0.6021 RIGHT ARM 0.0000
-0.3010 ROBERT </s> -0.3010
-0.3010 ROBIN </s> -0.3010
-0.3010 SKYLER </s> -0.3010
-0.3010 SPRITE </s> -0.3010
-0.6021 THE LEFT -0.1761
-0.6021 THE RIGHT -0.1761
-0.6021 THEIR LEFT -0.1761
-0.6021 THEIR RIGHT -0.1761
-0.7782 TO </s> -0.3010
-0.4771 TO THE 0.0000
-0.3010 WAVING </s> -0.3010
-0.3010 WILLIAM </s> -0.3010

\3-grams:
-0.3010 <s> ALEX </s>
-0.3010 <s> AM </s>
-0.3010 <s> CHARLIE </s>
-0.3010 <s> CHOCOLATE DRINK
-0.3010 <s> COKE </s>
-0.3010 <s> ELIZABETH </s>
-0.3010 <s> FAVOURITE </s>
-0.3010 <s> FIND </s>
-0.3010 <s> FOLLOW </s>
-0.3010 <s> FRANCIS </s>
-0.3010 <s> GRAB </s>
-0.3010 <s> GRAPE JUICE
-0.3010 <s> HELLO </s>
-0.3010 <s> HI </s>
-0.3010 <s> I </s>
-0.3010 <s> IS </s>
-0.3010 <s> JAMES </s>
-0.3010 <s> JENNIFER </s>
-0.3010 <s> JOHN </s>
-0.3010 <s> LIKE </s>
-0.3010 <s> LINDA </s>
-0.3010 <s> LOCATE </s>
-0.3010 <s> MARY </s>
-0.3010 <s> MEET </s>
-0.3010 <s> MICHAEL </s>
-0.3010 <s> MY </s>
-0.3010 <s> NAME </s>
-0.3010 <s> ORANGE JUICE
-0.3010 <s> PATRICIA </s>
-0.6021 <s> POINT AT
-0.6021 <s> POINT TO
-0.3010 <s> POINTING TO
-0.3010 <s> PREFER </s>
-0.3010 <s> RAISING THEIR
-0.3010 <s> ROBERT </s>
-0.3010 <s> ROBIN </s>
-0.3010 <s> SKYLER </s>
-0.3010 <s> SPRITE </s>
-0.3010 <s> WAVING </s>
-0.3010 <s> WILLIAM </s>
-0.3010 CHOCOLATE DRINK </s>
-0.3010 GRAPE JUICE </s>
-0.3010 LEFT ARM </s>
-0.3010 ORANGE JUICE </s>
-0.3010 POINT AT </s>
-0.3010 POINT TO </s>
-0.3010 POINTING TO THE
-0.6021 RAISING THEIR LEFT
-0.6021 RAISING THEIR RIGHT
-0.3010 RIGHT ARM </s>
-0.3010 THE LEFT </s>
-0.3010 THE RIGHT </s>
-0.3010 THEIR LEFT ARM
-0.3010 THEIR RIGHT ARM
-0.6021 TO THE LEFT
-0.6021 TO THE RIGHT

\end\
