Language model created by QuickLM on Mon Jun 22 23:09:47 EDT 2020
Copyright (c) 1996-2010 Carnegie Mellon University and Alexander I. Rudnicky

The model is in standard ARPA format, designed by Doug Paul while he was at MITRE.

The code that was used to produce this language model is available in Open Source.
Please visit http://www.speech.cs.cmu.edu/tools/ for more information

The (fixed) discount mass is 0.5. The backoffs are computed using the ratio method.
This model based on a corpus of 32 sentences and 34 words

\data\
ngram 1=34
ngram 2=64
ngram 3=32

\1-grams:
-0.7782 </s> -0.3010
-0.7782 <s> -0.2218
-2.2833 AM -0.2218
-2.2833 AN -0.2218
-2.2833 AND -0.2218
-2.2833 ANDREW -0.2218
-2.2833 BYE -0.2218
-2.2833 CAN -0.2218
-2.2833 CHICKEN -0.2218
-2.2833 DONE -0.2218
-2.2833 FOR -0.2218
-2.2833 FRANCISCO -0.2218
-2.2833 GOODBYE -0.2218
-2.2833 I -0.2218
-2.2833 IS -0.2218
-2.2833 LIKE -0.2218
-2.2833 MY -0.2218
-2.2833 NAME -0.2218
-2.2833 NICK -0.2218
-2.2833 NO -0.2218
-2.2833 ORDER -0.2218
-2.2833 OSMAN -0.2218
-2.2833 PASTA -0.2218
-2.2833 PLACE -0.2218
-2.2833 READY -0.2218
-2.2833 RICE -0.2218
-2.2833 SALAD -0.2218
-2.2833 SPAGHETTI -0.2218
-2.2833 STEAK -0.2218
-2.2833 TO -0.2218
-2.2833 WANT -0.2218
-2.2833 WATER -0.2218
-2.2833 WOULD -0.2218
-2.2833 YES -0.2218

\2-grams:
-1.8062 <s> AM 0.0000
-1.8062 <s> AN 0.0000
-1.8062 <s> AND 0.0000
-1.8062 <s> ANDREW 0.0000
-1.8062 <s> BYE 0.0000
-1.8062 <s> CAN 0.0000
-1.8062 <s> CHICKEN 0.0000
-1.8062 <s> DONE 0.0000
-1.8062 <s> FOR 0.0000
-1.8062 <s> FRANCISCO 0.0000
-1.8062 <s> GOODBYE 0.0000
-1.8062 <s> I 0.0000
-1.8062 <s> IS 0.0000
-1.8062 <s> LIKE 0.0000
-1.8062 <s> MY 0.0000
-1.8062 <s> NAME 0.0000
-1.8062 <s> NICK 0.0000
-1.8062 <s> NO 0.0000
-1.8062 <s> ORDER 0.0000
-1.8062 <s> OSMAN 0.0000
-1.8062 <s> PASTA 0.0000
-1.8062 <s> PLACE 0.0000
-1.8062 <s> READY 0.0000
-1.8062 <s> RICE 0.0000
-1.8062 <s> SALAD 0.0000
-1.8062 <s> SPAGHETTI 0.0000
-1.8062 <s> STEAK 0.0000
-1.8062 <s> TO 0.0000
-1.8062 <s> WANT 0.0000
-1.8062 <s> WATER 0.0000
-1.8062 <s> WOULD 0.0000
-1.8062 <s> YES 0.0000
-0.3010 AM </s> -0.3010
-0.3010 AN </s> -0.3010
-0.3010 AND </s> -0.3010
-0.3010 ANDREW </s> -0.3010
-0.3010 BYE </s> -0.3010
-0.3010 CAN </s> -0.3010
-0.3010 CHICKEN </s> -0.3010
-0.3010 DONE </s> -0.3010
-0.3010 FOR </s> -0.3010
-0.3010 FRANCISCO </s> -0.3010
-0.3010 GOODBYE </s> -0.3010
-0.3010 I </s> -0.3010
-0.3010 IS </s> -0.3010
-0.3010 LIKE </s> -0.3010
-0.3010 MY </s> -0.3010
-0.3010 NAME </s> -0.3010
-0.3010 NICK </s> -0.3010
-0.3010 NO </s> -0.3010
-0.3010 ORDER </s> -0.3010
-0.3010 OSMAN </s> -0.3010
-0.3010 PASTA </s> -0.3010
-0.3010 PLACE </s> -0.3010
-0.3010 READY </s> -0.3010
-0.3010 RICE </s> -0.3010
-0.3010 SALAD </s> -0.3010
-0.3010 SPAGHETTI </s> -0.3010
-0.3010 STEAK </s> -0.3010
-0.3010 TO </s> -0.3010
-0.3010 WANT </s> -0.3010
-0.3010 WATER </s> -0.3010
-0.3010 WOULD </s> -0.3010
-0.3010 YES </s> -0.3010

\3-grams:
-0.3010 <s> AM </s>
-0.3010 <s> AN </s>
-0.3010 <s> AND </s>
-0.3010 <s> ANDREW </s>
-0.3010 <s> BYE </s>
-0.3010 <s> CAN </s>
-0.3010 <s> CHICKEN </s>
-0.3010 <s> DONE </s>
-0.3010 <s> FOR </s>
-0.3010 <s> FRANCISCO </s>
-0.3010 <s> GOODBYE </s>
-0.3010 <s> I </s>
-0.3010 <s> IS </s>
-0.3010 <s> LIKE </s>
-0.3010 <s> MY </s>
-0.3010 <s> NAME </s>
-0.3010 <s> NICK </s>
-0.3010 <s> NO </s>
-0.3010 <s> ORDER </s>
-0.3010 <s> OSMAN </s>
-0.3010 <s> PASTA </s>
-0.3010 <s> PLACE </s>
-0.3010 <s> READY </s>
-0.3010 <s> RICE </s>
-0.3010 <s> SALAD </s>
-0.3010 <s> SPAGHETTI </s>
-0.3010 <s> STEAK </s>
-0.3010 <s> TO </s>
-0.3010 <s> WANT </s>
-0.3010 <s> WATER </s>
-0.3010 <s> WOULD </s>
-0.3010 <s> YES </s>

\end\
