Language model created by QuickLM on Sat Feb  1 13:29:49 EST 2020
Copyright (c) 1996-2010 Carnegie Mellon University and Alexander I. Rudnicky

The model is in standard ARPA format, designed by Doug Paul while he was at MITRE.

The code that was used to produce this language model is available in Open Source.
Please visit http://www.speech.cs.cmu.edu/tools/ for more information

The (fixed) discount mass is 0.5. The backoffs are computed using the ratio method.
This model based on a corpus of 136 sentences and 55 words

\data\
ngram 1=55
ngram 2=139
ngram 3=199

\1-grams:
-1.0308 </s> -0.3010
-1.0308 <s> -0.2513
-2.5623 ALEX -0.2586
-2.8633 APPLE -0.2586
-2.8633 BAG -0.2586
-2.8633 BASKET -0.2586
-2.8633 BOWL -0.2586
-1.7841 BRING -0.2938
-2.8633 CEREAL -0.2586
-2.5623 CHARLIE -0.2586
-2.5623 CLEMENT -0.2586
-2.8633 CLOTH -0.2586
-2.8633 COKE -0.2586
-2.8633 CRACKERS -0.2586
-2.8633 CUP -0.2586
-2.8633 DISH -0.2586
-2.5623 ELIZABETH -0.2586
-1.5016 FIND -0.2586
-2.8633 FORK -0.2586
-2.5623 FRANCIS -0.2586
-2.5623 FRANCISCO -0.2586
-2.8633 GLASS -0.2586
-2.8633 GRAPE -0.2998
-1.8219 HELLO -0.2877
-1.5209 IS -0.2740
-2.5623 JAMES -0.2586
-2.5623 JENNIFER -0.2586
-2.5623 JOHN -0.2586
-2.5623 JUICE -0.2586
-2.8633 KNIFE -0.2586
-2.5623 LINDA -0.2586
-2.5623 MARY -0.2586
-1.7841 ME -0.2865
-1.8219 MEET -0.2740
-2.5623 MICHAEL -0.2586
-1.5209 MY -0.2877
-1.5209 NAME -0.2877
-2.5623 NICK -0.2586
-2.8633 NOODLES -0.2586
-2.5623 ORANGE -0.2573
-2.5623 OSMANN -0.2586
-2.8633 PAPRIKA -0.2586
-2.5623 PATRICIA -0.2586
-2.8633 PRINGLES -0.2586
-2.5623 ROBERT -0.2586
-2.2613 ROBIN -0.2586
-2.8633 SAUSAGES -0.2586
-2.5623 SIMAR -0.2586
-2.2613 SKYLER -0.2586
-2.8633 SPONGE -0.2586
-2.8633 SPOON -0.2586
-2.8633 SPRITE -0.2586
-1.4831 THE -0.2865
-2.8633 TRAY -0.2586
-2.5623 WILLIAM -0.2586

\2-grams:
-1.0544 <s> BRING 0.0000
-0.7718 <s> FIND -0.0000
-1.0921 <s> HELLO 0.0000
-1.0921 <s> MEET -0.0000
-1.0921 <s> MY 0.0000
-0.3010 ALEX </s> -0.3010
-0.3010 APPLE </s> -0.3010
-0.3010 BAG </s> -0.3010
-0.3010 BASKET </s> -0.3010
-0.3010 BOWL </s> -0.3010
-0.3010 BRING ME 0.0000
-0.3010 CEREAL </s> -0.3010
-0.3010 CHARLIE </s> -0.3010
-0.3010 CLEMENT </s> -0.3010
-0.3010 CLOTH </s> -0.3010
-0.3010 COKE </s> -0.3010
-0.3010 CRACKERS </s> -0.3010
-0.3010 CUP </s> -0.3010
-0.3010 DISH </s> -0.3010
-0.3010 ELIZABETH </s> -0.3010
-1.9638 FIND ALEX 0.0000
-1.9638 FIND CHARLIE 0.0000
-1.9638 FIND CLEMENT 0.0000
-1.9638 FIND ELIZABETH 0.0000
-1.9638 FIND FRANCIS 0.0000
-1.9638 FIND FRANCISCO 0.0000
-1.9638 FIND JAMES 0.0000
-1.9638 FIND JENNIFER 0.0000
-1.9638 FIND JOHN 0.0000
-1.9638 FIND LINDA 0.0000
-1.9638 FIND MARY 0.0000
-1.9638 FIND MICHAEL 0.0000
-1.9638 FIND NICK 0.0000
-1.9638 FIND OSMANN 0.0000
-1.9638 FIND PATRICIA 0.0000
-1.9638 FIND ROBERT 0.0000
-1.6628 FIND ROBIN 0.0000
-1.9638 FIND SIMAR 0.0000
-1.6628 FIND SKYLER 0.0000
-0.5836 FIND THE -0.0000
-1.9638 FIND WILLIAM 0.0000
-0.3010 FORK </s> -0.3010
-0.3010 FRANCIS </s> -0.3010
-0.3010 FRANCISCO </s> -0.3010
-0.3010 GLASS </s> -0.3010
-0.3010 GRAPE JUICE 0.0000
-0.3010 HELLO MY 0.0000
-1.6435 IS ALEX 0.0000
-1.6435 IS CHARLIE 0.0000
-1.6435 IS CLEMENT 0.0000
-1.6435 IS ELIZABETH 0.0000
-1.6435 IS FRANCIS 0.0000
-1.6435 IS FRANCISCO 0.0000
-1.6435 IS JAMES 0.0000
-1.6435 IS JENNIFER 0.0000
-1.6435 IS JOHN 0.0000
-1.6435 IS LINDA 0.0000
-1.6435 IS MARY 0.0000
-1.6435 IS MICHAEL 0.0000
-1.6435 IS NICK 0.0000
-1.6435 IS OSMANN 0.0000
-1.6435 IS PATRICIA 0.0000
-1.6435 IS ROBERT 0.0000
-1.3424 IS ROBIN 0.0000
-1.6435 IS SIMAR 0.0000
-1.3424 IS SKYLER 0.0000
-1.6435 IS WILLIAM 0.0000
-0.3010 JAMES </s> -0.3010
-0.3010 JENNIFER </s> -0.3010
-0.3010 JOHN </s> -0.3010
-0.3010 JUICE </s> -0.3010
-0.3010 KNIFE </s> -0.3010
-0.3010 LINDA </s> -0.3010
-0.3010 MARY </s> -0.3010
-0.3010 ME THE -0.0000
-1.6435 MEET ALEX 0.0000
-1.6435 MEET CHARLIE 0.0000
-1.6435 MEET CLEMENT 0.0000
-1.6435 MEET ELIZABETH 0.0000
-1.6435 MEET FRANCIS 0.0000
-1.6435 MEET FRANCISCO 0.0000
-1.6435 MEET JAMES 0.0000
-1.6435 MEET JENNIFER 0.0000
-1.6435 MEET JOHN 0.0000
-1.6435 MEET LINDA 0.0000
-1.6435 MEET MARY 0.0000
-1.6435 MEET MICHAEL 0.0000
-1.6435 MEET NICK 0.0000
-1.6435 MEET OSMANN 0.0000
-1.6435 MEET PATRICIA 0.0000
-1.6435 MEET ROBERT 0.0000
-1.3424 MEET ROBIN 0.0000
-1.6435 MEET SIMAR 0.0000
-1.3424 MEET SKYLER 0.0000
-1.6435 MEET WILLIAM 0.0000
-0.3010 MICHAEL </s> -0.3010
-0.3010 MY NAME 0.0000
-0.3010 NAME IS -0.0000
-0.3010 NICK </s> -0.3010
-0.3010 NOODLES </s> -0.3010
-0.6021 ORANGE </s> -0.3010
-0.6021 ORANGE JUICE 0.0000
-0.3010 OSMANN </s> -0.3010
-0.3010 PAPRIKA </s> -0.3010
-0.3010 PATRICIA </s> -0.3010
-0.3010 PRINGLES </s> -0.3010
-0.3010 ROBERT </s> -0.3010
-0.3010 ROBIN </s> -0.3010
-0.3010 SAUSAGES </s> -0.3010
-0.3010 SIMAR </s> -0.3010
-0.3010 SKYLER </s> -0.3010
-0.3010 SPONGE </s> -0.3010
-0.3010 SPOON </s> -0.3010
-0.3010 SPRITE </s> -0.3010
-1.6812 THE APPLE 0.0000
-1.6812 THE BAG 0.0000
-1.6812 THE BASKET 0.0000
-1.6812 THE BOWL 0.0000
-1.6812 THE CEREAL 0.0000
-1.6812 THE CLOTH 0.0000
-1.6812 THE COKE 0.0000
-1.6812 THE CRACKERS 0.0000
-1.6812 THE CUP 0.0000
-1.6812 THE DISH 0.0000
-1.6812 THE FORK 0.0000
-1.6812 THE GLASS 0.0000
-1.6812 THE GRAPE 0.0000
-1.6812 THE KNIFE 0.0000
-1.6812 THE NOODLES 0.0000
-1.3802 THE ORANGE 0.0000
-1.6812 THE PAPRIKA 0.0000
-1.6812 THE PRINGLES 0.0000
-1.6812 THE SAUSAGES 0.0000
-1.6812 THE SPONGE 0.0000
-1.6812 THE SPOON 0.0000
-1.6812 THE SPRITE 0.0000
-1.6812 THE TRAY 0.0000
-0.3010 TRAY </s> -0.3010
-0.3010 WILLIAM </s> -0.3010

\3-grams:
-0.3010 <s> BRING ME
-1.9638 <s> FIND ALEX
-1.9638 <s> FIND CHARLIE
-1.9638 <s> FIND CLEMENT
-1.9638 <s> FIND ELIZABETH
-1.9638 <s> FIND FRANCIS
-1.9638 <s> FIND FRANCISCO
-1.9638 <s> FIND JAMES
-1.9638 <s> FIND JENNIFER
-1.9638 <s> FIND JOHN
-1.9638 <s> FIND LINDA
-1.9638 <s> FIND MARY
-1.9638 <s> FIND MICHAEL
-1.9638 <s> FIND NICK
-1.9638 <s> FIND OSMANN
-1.9638 <s> FIND PATRICIA
-1.9638 <s> FIND ROBERT
-1.6628 <s> FIND ROBIN
-1.9638 <s> FIND SIMAR
-1.6628 <s> FIND SKYLER
-0.5836 <s> FIND THE
-1.9638 <s> FIND WILLIAM
-0.3010 <s> HELLO MY
-1.6435 <s> MEET ALEX
-1.6435 <s> MEET CHARLIE
-1.6435 <s> MEET CLEMENT
-1.6435 <s> MEET ELIZABETH
-1.6435 <s> MEET FRANCIS
-1.6435 <s> MEET FRANCISCO
-1.6435 <s> MEET JAMES
-1.6435 <s> MEET JENNIFER
-1.6435 <s> MEET JOHN
-1.6435 <s> MEET LINDA
-1.6435 <s> MEET MARY
-1.6435 <s> MEET MICHAEL
-1.6435 <s> MEET NICK
-1.6435 <s> MEET OSMANN
-1.6435 <s> MEET PATRICIA
-1.6435 <s> MEET ROBERT
-1.3424 <s> MEET ROBIN
-1.6435 <s> MEET SIMAR
-1.3424 <s> MEET SKYLER
-1.6435 <s> MEET WILLIAM
-0.3010 <s> MY NAME
-0.3010 BRING ME THE
-0.3010 FIND ALEX </s>
-0.3010 FIND CHARLIE </s>
-0.3010 FIND CLEMENT </s>
-0.3010 FIND ELIZABETH </s>
-0.3010 FIND FRANCIS </s>
-0.3010 FIND FRANCISCO </s>
-0.3010 FIND JAMES </s>
-0.3010 FIND JENNIFER </s>
-0.3010 FIND JOHN </s>
-0.3010 FIND LINDA </s>
-0.3010 FIND MARY </s>
-0.3010 FIND MICHAEL </s>
-0.3010 FIND NICK </s>
-0.3010 FIND OSMANN </s>
-0.3010 FIND PATRICIA </s>
-0.3010 FIND ROBERT </s>
-0.3010 FIND ROBIN </s>
-0.3010 FIND SIMAR </s>
-0.3010 FIND SKYLER </s>
-1.6812 FIND THE APPLE
-1.6812 FIND THE BAG
-1.6812 FIND THE BASKET
-1.6812 FIND THE BOWL
-1.6812 FIND THE CEREAL
-1.6812 FIND THE CLOTH
-1.6812 FIND THE COKE
-1.6812 FIND THE CRACKERS
-1.6812 FIND THE CUP
-1.6812 FIND THE DISH
-1.6812 FIND THE FORK
-1.6812 FIND THE GLASS
-1.6812 FIND THE GRAPE
-1.6812 FIND THE KNIFE
-1.6812 FIND THE NOODLES
-1.3802 FIND THE ORANGE
-1.6812 FIND THE PAPRIKA
-1.6812 FIND THE PRINGLES
-1.6812 FIND THE SAUSAGES
-1.6812 FIND THE SPONGE
-1.6812 FIND THE SPOON
-1.6812 FIND THE SPRITE
-1.6812 FIND THE TRAY
-0.3010 FIND WILLIAM </s>
-0.3010 GRAPE JUICE </s>
-0.3010 HELLO MY NAME
-0.3010 IS ALEX </s>
-0.3010 IS CHARLIE </s>
-0.3010 IS CLEMENT </s>
-0.3010 IS ELIZABETH </s>
-0.3010 IS FRANCIS </s>
-0.3010 IS FRANCISCO </s>
-0.3010 IS JAMES </s>
-0.3010 IS JENNIFER </s>
-0.3010 IS JOHN </s>
-0.3010 IS LINDA </s>
-0.3010 IS MARY </s>
-0.3010 IS MICHAEL </s>
-0.3010 IS NICK </s>
-0.3010 IS OSMANN </s>
-0.3010 IS PATRICIA </s>
-0.3010 IS ROBERT </s>
-0.3010 IS ROBIN </s>
-0.3010 IS SIMAR </s>
-0.3010 IS SKYLER </s>
-0.3010 IS WILLIAM </s>
-1.6812 ME THE APPLE
-1.6812 ME THE BAG
-1.6812 ME THE BASKET
-1.6812 ME THE BOWL
-1.6812 ME THE CEREAL
-1.6812 ME THE CLOTH
-1.6812 ME THE COKE
-1.6812 ME THE CRACKERS
-1.6812 ME THE CUP
-1.6812 ME THE DISH
-1.6812 ME THE FORK
-1.6812 ME THE GLASS
-1.6812 ME THE GRAPE
-1.6812 ME THE KNIFE
-1.6812 ME THE NOODLES
-1.3802 ME THE ORANGE
-1.6812 ME THE PAPRIKA
-1.6812 ME THE PRINGLES
-1.6812 ME THE SAUSAGES
-1.6812 ME THE SPONGE
-1.6812 ME THE SPOON
-1.6812 ME THE SPRITE
-1.6812 ME THE TRAY
-0.3010 MEET ALEX </s>
-0.3010 MEET CHARLIE </s>
-0.3010 MEET CLEMENT </s>
-0.3010 MEET ELIZABETH </s>
-0.3010 MEET FRANCIS </s>
-0.3010 MEET FRANCISCO </s>
-0.3010 MEET JAMES </s>
-0.3010 MEET JENNIFER </s>
-0.3010 MEET JOHN </s>
-0.3010 MEET LINDA </s>
-0.3010 MEET MARY </s>
-0.3010 MEET MICHAEL </s>
-0.3010 MEET NICK </s>
-0.3010 MEET OSMANN </s>
-0.3010 MEET PATRICIA </s>
-0.3010 MEET ROBERT </s>
-0.3010 MEET ROBIN </s>
-0.3010 MEET SIMAR </s>
-0.3010 MEET SKYLER </s>
-0.3010 MEET WILLIAM </s>
-0.3010 MY NAME IS
-1.6435 NAME IS ALEX
-1.6435 NAME IS CHARLIE
-1.6435 NAME IS CLEMENT
-1.6435 NAME IS ELIZABETH
-1.6435 NAME IS FRANCIS
-1.6435 NAME IS FRANCISCO
-1.6435 NAME IS JAMES
-1.6435 NAME IS JENNIFER
-1.6435 NAME IS JOHN
-1.6435 NAME IS LINDA
-1.6435 NAME IS MARY
-1.6435 NAME IS MICHAEL
-1.6435 NAME IS NICK
-1.6435 NAME IS OSMANN
-1.6435 NAME IS PATRICIA
-1.6435 NAME IS ROBERT
-1.3424 NAME IS ROBIN
-1.6435 NAME IS SIMAR
-1.3424 NAME IS SKYLER
-1.6435 NAME IS WILLIAM
-0.3010 ORANGE JUICE </s>
-0.3010 THE APPLE </s>
-0.3010 THE BAG </s>
-0.3010 THE BASKET </s>
-0.3010 THE BOWL </s>
-0.3010 THE CEREAL </s>
-0.3010 THE CLOTH </s>
-0.3010 THE COKE </s>
-0.3010 THE CRACKERS </s>
-0.3010 THE CUP </s>
-0.3010 THE DISH </s>
-0.3010 THE FORK </s>
-0.3010 THE GLASS </s>
-0.3010 THE GRAPE JUICE
-0.3010 THE KNIFE </s>
-0.3010 THE NOODLES </s>
-0.6021 THE ORANGE </s>
-0.6021 THE ORANGE JUICE
-0.3010 THE PAPRIKA </s>
-0.3010 THE PRINGLES </s>
-0.3010 THE SAUSAGES </s>
-0.3010 THE SPONGE </s>
-0.3010 THE SPOON </s>
-0.3010 THE SPRITE </s>
-0.3010 THE TRAY </s>

\end\
