Language model created by QuickLM on Tue Jun  9 18:21:32 EDT 2020
Copyright (c) 1996-2010 Carnegie Mellon University and Alexander I. Rudnicky

The model is in standard ARPA format, designed by Doug Paul while he was at MITRE.

The code that was used to produce this language model is available in Open Source.
Please visit http://www.speech.cs.cmu.edu/tools/ for more information

The (fixed) discount mass is 0.5. The backoffs are computed using the ratio method.
This model based on a corpus of 26 sentences and 29 words

\data\
ngram 1=29
ngram 2=54
ngram 3=39

\1-grams:
-0.8451 </s> -0.3010
-0.8451 <s> -0.2257
-2.2601 ABORT -0.2341
-2.2601 AHEAD -0.2341
-1.9590 BACK -0.2285
-2.2601 BACKWARD -0.2341
-2.2601 CONTINUE -0.2962
-1.9590 DOWN -0.2341
-2.2601 FASTER -0.2341
-2.2601 FORWARD -0.2341
-2.2601 HALF -0.2938
-2.2601 HALT -0.2341
-2.2601 KILL -0.2341
-1.9590 LEFT -0.2341
-1.9590 OFF -0.2341
-2.2601 PANIC -0.2341
-2.2601 PAUSE -0.2962
-2.2601 QUARTER -0.2938
-1.9590 RIGHT -0.2341
-1.9590 ROTATE -0.2914
-2.2601 SHUT -0.2962
-2.2601 SLOW -0.2962
-2.2601 SLOWER -0.2341
-1.7830 SPEED -0.2285
-2.2601 STOP -0.2341
-2.2601 STRAIGHT -0.2341
-1.7830 TURN -0.2865
-1.9590 UP -0.2341
-1.9590 VOICE -0.2341

\2-grams:
-1.7160 <s> ABORT 0.0000
-1.7160 <s> AHEAD 0.0000
-1.4150 <s> BACK 0.0000
-1.7160 <s> BACKWARD 0.0000
-1.7160 <s> CONTINUE 0.0000
-1.7160 <s> FASTER 0.0000
-1.7160 <s> FORWARD 0.0000
-1.7160 <s> HALF 0.0000
-1.7160 <s> HALT 0.0000
-1.7160 <s> KILL 0.0000
-1.7160 <s> OFF 0.0000
-1.7160 <s> PANIC 0.0000
-1.7160 <s> PAUSE 0.0000
-1.7160 <s> QUARTER 0.0000
-1.4150 <s> ROTATE 0.0000
-1.7160 <s> SHUT 0.0000
-1.7160 <s> SLOW 0.0000
-1.7160 <s> SLOWER 0.0000
-1.7160 <s> SPEED -0.2218
-1.7160 <s> STOP 0.0000
-1.7160 <s> STRAIGHT 0.0000
-1.2389 <s> TURN 0.0000
-0.3010 ABORT </s> -0.3010
-0.3010 AHEAD </s> -0.3010
-0.6021 BACK </s> -0.3010
-0.6021 BACK UP 0.0000
-0.3010 BACKWARD </s> -0.3010
-0.3010 CONTINUE VOICE 0.0000
-0.3010 DOWN </s> -0.3010
-0.3010 FASTER </s> -0.3010
-0.3010 FORWARD </s> -0.3010
-0.3010 HALF SPEED -0.1249
-0.3010 HALT </s> -0.3010
-0.3010 KILL </s> -0.3010
-0.3010 LEFT </s> -0.3010
-0.3010 OFF </s> -0.3010
-0.3010 PANIC </s> -0.3010
-0.3010 PAUSE VOICE 0.0000
-0.3010 QUARTER SPEED -0.1249
-0.3010 RIGHT </s> -0.3010
-0.6021 ROTATE LEFT 0.0000
-0.6021 ROTATE RIGHT 0.0000
-0.3010 SHUT DOWN 0.0000
-0.3010 SLOW DOWN 0.0000
-0.3010 SLOWER </s> -0.3010
-0.4771 SPEED </s> -0.3010
-0.7782 SPEED UP 0.0000
-0.3010 STOP </s> -0.3010
-0.3010 STRAIGHT </s> -0.3010
-0.7782 TURN LEFT 0.0000
-0.7782 TURN OFF 0.0000
-0.7782 TURN RIGHT 0.0000
-0.3010 UP </s> -0.3010
-0.3010 VOICE </s> -0.3010

\3-grams:
-0.3010 <s> ABORT </s>
-0.3010 <s> AHEAD </s>
-0.6021 <s> BACK </s>
-0.6021 <s> BACK UP
-0.3010 <s> BACKWARD </s>
-0.3010 <s> CONTINUE VOICE
-0.3010 <s> FASTER </s>
-0.3010 <s> FORWARD </s>
-0.3010 <s> HALF SPEED
-0.3010 <s> HALT </s>
-0.3010 <s> KILL </s>
-0.3010 <s> OFF </s>
-0.3010 <s> PANIC </s>
-0.3010 <s> PAUSE VOICE
-0.3010 <s> QUARTER SPEED
-0.6021 <s> ROTATE LEFT
-0.6021 <s> ROTATE RIGHT
-0.3010 <s> SHUT DOWN
-0.3010 <s> SLOW DOWN
-0.3010 <s> SLOWER </s>
-0.3010 <s> SPEED UP
-0.3010 <s> STOP </s>
-0.3010 <s> STRAIGHT </s>
-0.7782 <s> TURN LEFT
-0.7782 <s> TURN OFF
-0.7782 <s> TURN RIGHT
-0.3010 BACK UP </s>
-0.3010 CONTINUE VOICE </s>
-0.3010 HALF SPEED </s>
-0.3010 PAUSE VOICE </s>
-0.3010 QUARTER SPEED </s>
-0.3010 ROTATE LEFT </s>
-0.3010 ROTATE RIGHT </s>
-0.3010 SHUT DOWN </s>
-0.3010 SLOW DOWN </s>
-0.3010 SPEED UP </s>
-0.3010 TURN LEFT </s>
-0.3010 TURN OFF </s>
-0.3010 TURN RIGHT </s>

\end\
